8 128
2 0.0006645035 -0.0005576592 0.0036550239 0.002425032 0.002843525 0.00040277027 0.0008272982 0.0012515517 -0.003811186 0.0011756602 0.0023141485 0.0009911051 0.0006554733 0.0015734207 -0.0003143479 0.00020509164 0.0022910433 0.003817935 -0.00061902055 0.0033096091 0.0011840232 0.0007397395 0.0022162464 4.498061e-05 -0.0029762061 -0.0029033176 -0.0016044658 0.0022594891 -0.0023876617 0.0031841933 -0.0004094282 0.0002182276 -0.0037260898 -0.0012370687 -0.0037649206 -0.0024677003 -0.0033682012 -0.000573468 -0.0017987462 -0.0012656393 0.0027366572 0.0016894273 -0.00130471 -0.0011656974 0.003084887 -0.002260911 0.0017022872 -8.303327e-05 0.0025921355 -0.0029878942 -0.0034705293 -1.42132885e-05 -0.002080981 0.0030150423 0.002049923 -0.0029702259 -0.0012642381 0.0025746713 0.00027077502 0.0020208429 -0.0029141 0.0007772425 -0.0030326336 0.00021605744 -0.0016392398 0.0028096114 0.003747586 0.0030984774 0.000752959 -0.0019334803 -0.00072162854 -0.0030008769 0.0031281952 0.003037618 0.0038330609 -0.0010867426 -0.0015166998 0.0027185357 -0.0021659515 -0.0037393917 0.0029356272 -0.00028350265 -0.0008663358 0.0003153202 -0.0028924828 0.00097059616 -0.0016068523 -4.335468e-06 0.002228455 -0.0008039793 -0.0022053435 0.0015506173 0.00022438062 0.0031653303 -0.0016009986 -0.00089906255 0.0011077608 -0.0029794744 0.0029521536 0.00021371314 0.002737808 -0.0021296216 -0.0032539724 -0.002527358 -0.00031223326 0.0019610731 -0.0015521236 -0.0013992125 -0.001048596 0.0027531995 0.0015620003 -0.0017002674 0.0034982045 0.0007032388 0.00078747974 -0.0030477415 -0.0032754922 -0.00069944694 0.0017533578 0.0031906983 -0.0037368184 -0.0021293692 -0.0031277852 0.0036345809 0.0021261096 -0.001553203 0.001898224 0.0018273616
1 -0.001739313 0.00013900481 -0.0004991919 0.0031245712 0.001106497 -0.0024802804 0.002650787 -0.0023290825 -0.0019968709 0.002375046 -0.0003266868 -0.00027639128 0.0030176486 0.0017153907 -0.0013939649 -7.655787e-05 0.0012951087 -0.0037380194 0.0017256386 0.0020458265 -0.0006827746 -0.0014016439 -0.0014202418 -0.0013675513 -0.0020154049 -0.0017759135 0.00031928642 0.0035527265 -0.003207306 0.001450186 -0.0016641873 -0.00011227199 -0.00033243658 0.0034411855 0.00057222904 0.0030001872 -0.0035181153 0.0021489663 0.00059739704 -0.0008701057 0.0035278862 0.003384878 0.0022724434 -3.6766185e-05 -0.0034431268 0.0023600662 -0.0005662083 0.0024678046 0.003646368 0.0014515083 0.0028250646 -0.002497963 0.003550808 -0.0009088784 -0.0007687973 -0.0027646038 0.0027570173 -0.0029082254 0.00040209055 -0.0016084716 0.002899773 -0.0026506132 0.0027565178 -0.002907652 0.0012458157 -0.0014684635 0.0007801441 -0.0017185383 -0.0038957351 -0.0035592632 0.0037396706 0.0037094671 -0.00258652 -0.0007200663 0.0023094276 0.0012507965 0.0024833176 0.0022339844 -0.00048767048 -0.0002488297 -3.8753395e-05 0.0006994587 0.00336736 -0.0023513932 0.00091137807 0.00032867663 0.0028270655 0.00061788387 0.0018294082 -0.0010615154 -0.0005927091 -0.0014096008 0.0034347305 0.0025606859 0.00058868673 -0.0005044666 -0.0017704661 -0.0028007457 -0.0010110252 -0.0009356147 -0.0020077755 0.0019962778 -0.0032967879 0.00013242158 -0.0015826673 0.0030480723 -0.0014564769 0.0004442522 0.0029363723 0.000736377 -0.0019611812 0.0015001883 -0.0036332812 0.0029664661 0.0017126366 -0.003274191 0.00038759134 -0.0026674587 -0.0013438076 0.00029648075 -0.0012252574 0.0011422702 0.00053846784 0.0030769857 -0.00018245881 0.0024968854 -0.0011890178 -0.0036166343
8 0.0012433402 0.0016961476 -0.00080540334 -0.0004266597 0.0012470533 0.0027343454 0.00032674283 -0.0024341077 -0.0025379 0.0017936965 -0.0026296317 -0.0014552891 -0.0020808424 0.0032457819 -0.002358358 -0.0005021792 6.323361e-05 0.0034092867 0.0035613128 -0.0035369005 -0.0023959992 -0.000267379 -0.0020624055 0.00069475186 0.00014644346 0.0014008129 0.0009743225 -1.7965544e-05 -0.002494743 -0.0035938383 0.0013770995 -0.0028192557 -0.00039010274 0.0012194675 0.0011050026 -0.001710753 -0.00052645616 -0.0011594362 -0.0010187926 0.00030742874 0.0013755012 0.003078987 -0.002412956 0.0032935021 -0.0012112096 -0.0023404793 -0.003496736 -0.00070210855 -0.0009947515 0.00013998862 -0.0015503311 1.2367026e-05 -0.000569785 -0.0019200682 0.0010631899 -0.00037774362 -0.002257013 -0.0022854947 0.0027117047 0.0028546161 0.0012571225 0.0032431188 0.00081752485 0.0001504184 0.0019668203 -0.0009287985 0.0009628757 -5.934366e-05 -0.0037167477 0.0021664803 0.0035646188 0.0005218789 -0.0037612533 0.00016862541 0.00093905395 0.0005108797 -0.00014310385 0.0008508693 -0.003443188 -0.0013973237 -0.0020141057 0.0013977722 0.0037609162 0.0030821906 0.0009680412 0.00086930714 0.0021422142 0.0014322873 -0.0014212648 0.0011278869 0.0023669216 -0.0037156101 -0.0029250907 0.0020554303 -0.00248343 0.0030552521 -0.0024020374 -0.0016807133 0.0031512042 -0.0035393653 -0.0015857056 0.00097264146 0.003523561 0.0020206524 0.003829639 -0.0012787099 -0.0033470218 0.0019567416 -0.0019263217 -0.002043371 0.0007887609 -0.0011616565 -0.0024182075 -0.00055902405 -0.002363266 0.0012823893 -0.002854436 0.0034445664 -0.0030239047 0.0015638026 -0.0037798553 0.0011304194 -0.0034688937 0.00035661247 0.0036296232 -0.002698074 0.0033323343 -0.0037902717
3 0.0033650869 0.003328355 0.0008448574 -0.0028304628 -0.0007802207 -0.0025342614 -0.001968527 -0.00079098553 0.002208689 0.00015950653 0.0027964697 0.00024689682 -0.00014892603 -0.0021369748 0.0034352774 -0.0015875082 0.0029681553 -0.002626761 -0.0036962784 -0.0024579994 -0.0033295264 0.0028400011 -0.0018146096 -0.0017076377 -0.00065123115 -0.00082587014 0.0010414675 -0.0026566766 -0.0021941983 0.0025644114 0.0011459437 0.0023291495 -0.0033248414 0.0014384432 -0.00070412614 0.002942923 0.0014567046 0.003618368 0.0032935517 -0.0012400955 0.0027149778 -0.000103267164 -0.0024719634 0.0022588344 -0.003908021 0.0006299154 -0.0023172116 -0.00018812425 0.0022889404 -0.002712558 -0.002892693 0.0023768935 0.0029084457 0.0034274845 0.003705901 -0.002741678 0.0027323691 -0.00028813415 0.0023286466 0.001087796 -0.0032232408 -0.001483247 -0.0025761304 0.0017066975 -0.0010647896 -0.0032793276 -0.00029237333 0.0033943385 0.003395949 -0.00024515405 0.0017182303 -0.0017623247 0.00015971053 0.0023716346 -0.0010636202 0.0003626883 0.0036935715 -0.00076175877 -0.0036833463 -0.0032055012 0.0017645766 0.002264862 0.002944202 -0.0016785273 0.003693623 -0.0005393901 0.00258187 0.0036844187 -0.0019387393 -0.0008662563 -0.0013968574 0.0026745873 0.0008520372 0.0015985019 0.0013726067 -0.0025678007 0.0007809217 -0.001954882 -0.0031832755 2.0521346e-05 0.003458316 -0.00370228 0.0025701486 0.00013060233 -0.0031251898 0.003231478 0.0007016637 -0.0011115413 0.0007028065 0.0014815683 0.00037595798 -0.0009492455 -0.0032695923 0.0031148868 0.0027025796 -0.0016360317 0.0027665733 0.0026627723 0.0033855499 -0.0038217055 -0.0026747724 -0.0033347805 -0.0027889614 -0.0020228538 0.00022589012 0.0020232329 -0.0022867522 -0.0020594527
7 0.0038272876 -0.0021407402 0.0018688712 0.0015360985 -0.002182158 0.0016990906 -0.0033477345 -0.000681549 -0.002725929 -0.001846858 -0.0016363503 0.0020080532 -0.0038525558 -0.00060375617 -0.00038938446 -0.00030392426 -0.0027702092 0.0036914034 0.0035846368 0.0035165923 -0.00042680555 -0.0026388944 -0.001768237 -0.0022107433 0.0022238274 -0.0004328966 -0.0017146381 -0.0003415437 -0.0022670503 -0.0017140855 0.0012544427 0.002822902 0.0032574136 0.0028034914 0.0035134743 0.0016161958 0.0011679688 0.0022383456 -0.0025005413 -0.00090970297 -0.003727904 -0.003599684 0.0016339385 -0.003801491 0.0020253537 0.0020210235 -0.0035585016 0.0028177206 0.0016869027 0.0019599036 0.00037278325 -0.0005736558 -0.0014218271 -0.0036872567 0.00012474405 -0.00039100574 -0.0026680457 0.00011859939 0.0018335304 -0.0016463402 -0.002302863 -0.0027936837 0.00047675276 -0.001183596 -0.0009911903 -0.0033089528 -0.0018025464 0.001730305 0.0019232798 0.001595834 -0.0038243057 -0.00051710766 0.0016344956 0.0029915676 -0.0013042 -0.00051368674 -0.0026399253 -0.0032706824 0.0035677461 0.0016422085 -0.0010029082 0.00047314723 0.0020916136 -0.0034334897 0.00031699665 0.0011142051 -0.0006236284 -0.0023668427 0.00068362494 0.002006575 -0.0032117462 0.0028850248 -0.002893048 -0.003883971 -0.0019185389 0.0022289911 -0.0033100317 0.0027288108 -0.0028955033 -0.0004966146 -0.0037263546 -0.0032480545 0.00010884054 0.0020563905 -2.1776492e-05 0.0002543929 0.0024183793 -0.001314406 -0.0012004565 -0.0013751852 0.002009902 -0.0001230881 0.0015839417 0.001216241 -0.0012461676 0.0007852261 0.0010010392 -0.0012886417 -0.0003197221 -0.0015666909 -0.0022945066 0.00034618963 0.0035194322 0.0028271242 -0.0007425852 0.0014463483 0.003816029 0.0028601778
9 -8.9137146e-05 -0.00053595746 0.0017959373 -0.0010770425 -0.0014610547 0.003547463 0.0016743185 -0.0003656028 -0.0032986437 -0.0024986595 -0.0015428794 -0.0029922528 0.0032660242 -0.0016723063 0.0024554457 -0.0007351572 -0.0011104668 -0.00044836837 0.0003817166 0.0015225146 0.0028565868 0.0028355329 0.00088923326 0.0037860088 -7.281618e-05 0.0018892183 -0.0035970972 -0.001046471 -0.0033429894 0.0017137352 -0.0016264123 -0.0010872822 0.0017814314 0.0029127658 -0.002307445 -0.00027170565 -0.0012450574 0.0038476125 0.0005462932 0.003848425 -0.0035861437 -0.0002660231 -0.0023236542 -0.0030546342 -0.0034286266 -0.0032423313 -0.0014044024 0.0019593944 -0.00070052635 0.0001304096 0.0004632226 0.0031141902 -0.0026866647 0.0012741255 -0.0012722042 0.003536124 0.0009235494 0.0035270036 -0.0007136191 0.0013715769 -0.0031364805 0.0035753518 -0.0017091081 -0.00044429893 0.001797449 0.0029231473 -0.00042503586 0.0026763792 0.001233053 0.0034681703 0.0035691997 0.0018592832 0.0022732872 0.0011297623 0.0038139122 0.0012520964 -0.0028735416 -0.000681723 -0.0030100758 0.003831074 0.0012244362 0.0037040955 -0.003145044 -0.0005014606 -0.0013225101 0.0032206005 0.002493523 -0.0037286647 -0.0026890528 -0.0019646622 -0.001197119 -0.0020614448 -0.00028156064 -0.0020431336 0.0030990085 0.0028202021 -0.0013774794 0.0016421857 0.0035994556 3.9695566e-05 -0.0022104967 -0.0038286168 -0.003783242 -0.002043277 -0.0034979226 -0.0011844281 0.0022703425 0.0035950958 -0.0019464804 -0.0036527026 -0.0010275629 -0.0035548564 0.0020482657 1.7647733e-05 -0.0005348763 0.0019528699 -0.00252626 -0.0034763494 0.003228713 0.0023908594 0.001094806 0.0020185586 0.0009996908 -0.0034837753 0.0022651497 0.0005420565 -0.00094807317 0.0030644326
5 0.0029799636 -0.0009486806 -0.0007018308 -0.0028772214 -0.0007589578 -0.0007594813 -0.001534869 -0.002395421 0.0027047568 0.0005074076 -0.0035358313 0.003505494 0.0037295406 -0.0032380342 -0.0027732004 0.0032147856 0.0016465082 0.0012802954 0.002255803 -0.0012519193 -0.0001896366 -0.00091927237 0.0021742538 0.0014461376 -0.00040281453 0.00024390331 0.0001543805 0.0034308217 0.0018296699 -0.00067233184 -0.00063862087 0.0026449657 -0.0021720175 -0.0007408043 -0.00021678337 -0.0007180445 0.0010847765 0.0018300876 0.0027572687 -0.002727505 -0.002235069 0.000666638 0.0034246463 -0.0021574588 0.00073857565 -0.0021811703 0.00054456067 0.0004343449 0.002614614 0.00043359806 0.002770768 0.002639872 -0.002690212 0.0015689636 0.002672413 -0.0013722441 -0.0005131287 0.0011608676 -0.0011481335 -0.00035043692 -0.0009958728 -0.00018323796 -0.0021026449 -0.0011696477 0.0025079427 -0.0007712547 -0.0013004481 0.0022556132 0.002051178 -0.0028663746 0.0026621819 0.0016827774 0.0031459895 -0.00072272075 -0.0029671774 0.0018342505 0.0030001039 0.0001518755 0.0005961442 0.0024742077 0.0033994003 -0.0013767562 -0.0025204674 -0.0017435716 -0.0021752892 0.00033345495 0.0005924708 0.0030160737 -0.0022935788 0.0016036057 0.0015907981 -0.0016449601 0.000936929 -0.00092121895 -0.000573972 -0.0025721786 0.0020306022 -0.0013368776 -0.0026577918 0.0037574102 0.0016683624 0.0016679845 -0.00022230613 0.0011139717 0.00011151996 0.003019032 0.0002684041 0.002495995 0.0005660605 -0.00025202867 -0.0018673665 0.0014687845 -0.0020464626 0.00088050426 -2.7736098e-05 0.0003511162 0.003790685 0.0033427752 0.00028023645 0.0034572284 0.003061198 0.0024736817 -0.00020264326 0.00097354554 -0.0012589896 -0.000118566044 0.0005264613 0.0007413594
6 -0.002841574 0.0022676487 0.0032421548 0.0006802116 0.0033241955 0.0015088528 0.0035205649 0.0020221919 0.0021887207 -0.0025052933 -0.0019548442 0.00086139934 -0.003685442 -0.0017950833 -0.0038096467 -7.916281e-05 -0.0034839266 -0.0028455995 -0.003093339 -0.0018074146 0.0020186855 0.003374789 0.00021240357 0.0018138743 0.003025432 -0.0005839222 0.0030474486 -0.0012958167 0.0035519202 -0.0038799194 0.0007748895 0.003287059 -0.0014523409 0.0036398596 0.0009362663 -0.0011797451 0.0029645031 -0.0014992134 0.00023618795 -0.0037877993 -0.0028744573 0.0015299075 0.00082656776 -0.00021304582 -0.0028900201 0.00035728666 0.002917674 -0.0036602397 0.00016140724 -0.0014103825 0.0003462712 -0.0037387426 -0.0028963536 -0.0006537697 -0.0011728232 -8.4262116e-05 -0.0030358855 0.00065153354 0.0026827052 0.0015671296 0.00175749 0.00039546337 -0.003627456 -0.003283849 -0.0017865358 0.0032229107 0.0022517343 0.0014356509 0.0038990371 0.0026638464 -0.0025710228 0.001990892 -0.0013537178 0.0014991252 0.00035417508 0.0019575579 -0.0026800407 -0.0023186333 -0.002606734 -0.0018911132 0.0036966088 -0.0015392777 -0.0003139635 -0.00044469393 0.0010057401 -0.0008813355 -0.00038722903 0.0032980153 0.0022635285 -0.0019021237 0.0023435014 -0.0011268414 -0.0007233157 -0.0023516568 0.0015109193 0.0021223237 0.00055559655 0.003536453 -0.0028752612 -0.0013749967 -0.0022455733 0.0029378824 0.0036649888 2.9962204e-05 -0.0004302881 0.0026876065 -0.003652496 -0.0030662573 0.0014735343 0.0031153504 0.0004208597 -0.001292847 -0.0009696605 -0.000641046 -0.00022976243 -0.001785885 -0.001007926 -0.0031440426 0.0035756181 0.0017118147 -0.0014869958 0.0037451917 0.0035362635 0.00076836813 5.9181326e-05 0.0016490595 0.0017613808 -0.0032491467
