4 128
4 0.0010213732 -0.0033358703 0.00047424118 -0.00013597218 0.0031175592 0.0018465903 -0.0035308716 0.0038819402 -0.002533058 -0.0027323354 0.00083621044 0.0020812259 0.0024197989 0.0014485683 0.002610054 -0.0036550344 0.0006499828 -0.0032463598 -0.00089422223 -0.0016298363 -0.0034980911 -0.0028484978 0.00031907254 0.0005758615 -0.0013449001 -0.001796186 -0.0036669518 -0.0028576204 -0.00331696 -0.0002957695 0.0011400501 0.001256364 0.000328322 -0.0013206172 -0.001546126 -0.0013696261 0.0009459878 -0.00018791496 0.0014359601 -8.9071604e-05 0.0014128115 -0.001614522 0.000262138 0.0019383822 -0.0012764706 -0.0013544778 0.0027294978 0.003244343 -0.0037515291 0.0011502379 -0.00045257044 -0.000115917646 0.0004757073 0.00056070724 -0.0006073762 -0.001029979 -0.00207905 -0.0029213 0.0032645997 0.0033300277 -0.0019837392 0.0013067069 3.7574846e-05 -0.00016175742 0.002816655 -0.001262052 -0.0014117359 -0.002835223 0.0030762537 0.0030911786 -0.003432943 -0.0005649877 0.00065340387 -0.0013275191 0.001030651 -0.0014851765 0.00152949 0.0028691015 -0.0026793287 -0.000521812 -0.0018690748 0.0026249941 0.0012009006 0.0030990767 0.0035570401 0.003115242 -0.0036161863 -0.0037141456 -0.0030227297 0.0006325785 -0.0007802605 -0.00029013204 -0.0018193831 -0.0025533594 0.0035793774 -0.0012084199 -0.0008130216 0.0036891457 -0.0021074596 0.0038847348 0.0018259882 -0.00055644644 0.0039041128 -0.0029784376 -0.0028685352 0.0020737892 0.0031819462 0.0029638512 0.0034821478 0.00019322892 0.0037613541 -0.0007018458 -0.0008383704 -0.003616222 -0.0022239154 -0.00076030474 0.0019328445 -0.0019099521 0.0002794426 -3.2586915e-05 0.0011788518 0.003263288 -2.082072e-05 0.0007105437 -0.0016408856 0.0017488712 0.0017630385 0.0005989197
3 -0.003328286 0.0004906955 -0.00063736143 -0.0016442065 -0.002703902 -0.0029277063 -0.0014863863 0.0018434715 -0.0037317097 -0.0009844512 -0.0036070829 -0.00087904406 -0.0036573657 -0.0034427007 -0.00033118925 -0.0017608139 0.0010143447 -0.0007967483 0.000314075 -0.0037092832 0.0006475451 0.0030909171 0.0037916168 0.003474393 -0.0032037478 0.003785497 -0.0036194695 -0.0029208018 -0.0034480419 -0.0010038204 0.00297591 -0.002182027 0.0034662571 -0.000973429 0.0003924407 -0.0035192159 -0.0021605752 0.00026293934 -0.00083294517 0.0030269902 0.00019975344 0.0024692093 0.0016650838 0.0030005104 -0.0028190098 -0.00020273778 0.0033307027 0.0014682724 -0.0023498496 0.0014909822 -0.0034735799 -0.0010563032 -0.0012462502 -0.0011641828 0.0021456685 -0.0029610891 -0.0014714008 -0.0025061197 0.00059585366 0.0016719936 -0.001919189 -0.0026036291 -0.0014035228 0.0031538948 8.317118e-05 0.0011841923 -0.0023428786 -0.000654649 0.0033704108 -0.0028383976 0.0022657353 0.0029507352 0.00029787607 -0.0009922363 0.0016897185 -0.00306447 -0.0009111072 0.002121197 0.001282084 -0.00092789484 -0.0019877534 0.0021841044 0.0016758846 -0.000589823 -0.0008225344 -0.0012900037 0.0019908578 -0.00072067115 -0.002734598 -0.0037076762 -0.0038326192 0.0030283465 -0.0038017102 -0.0031556413 0.0018279487 0.0012724656 0.0014624865 0.000681991 -2.5578125e-05 0.0010232772 0.002156781 0.0030571555 0.0027402912 0.00176258 -0.0017265521 0.003523333 0.00048664043 0.0020480745 -2.8084367e-05 -0.0020717464 8.473829e-05 -0.0023831467 -0.0033241555 -0.00083141326 -0.0033796215 -0.0033027036 0.0018465681 0.0017246059 -0.0009805921 0.001381158 -0.0006689025 0.0010767054 -0.0020339312 0.00037656407 -0.0013058223 -0.0010630928 -0.00084302976 -0.0015312844
1 0.001943161 0.0018603487 0.003621111 0.002663871 0.002751499 0.0005007234 -0.0021724494 -0.0009457197 -0.0029243592 0.0014012117 -0.0032238038 -0.0025316998 -0.0012081282 0.0008310441 0.0025312484 -0.00349358 -2.9842633e-05 9.006938e-05 0.002062658 0.0034796954 0.00014080481 0.0038103447 -0.0014784645 -0.0023146272 0.0011776407 -0.0006201699 0.0013760437 -0.0029204818 0.00042430207 -0.00095266313 -0.0030057016 -0.0029351774 0.003428856 -0.0017696088 -0.0023415196 -0.0038124595 -0.0018619394 0.0026216614 0.00042718794 -0.001948155 0.0018480413 -0.001334921 0.0013651799 0.0006152527 0.0031125515 0.0023858675 0.0036460108 0.00222385 0.0037098103 -0.0005643302 -0.0019759305 -0.00262621 0.002048686 -0.0023783187 -0.0016427308 -0.0014206946 0.002812154 -0.0033225024 -0.0014265496 0.00043786888 0.0013822966 -0.002541729 0.0015315164 -0.0017739364 0.000507535 -0.0021043571 -0.0027201723 0.00032854555 0.0015203876 -0.0034963032 -0.0020627081 3.6366047e-05 0.0004902256 -0.0021445353 3.8910835e-05 0.00012852866 -0.0023118565 0.0011550956 -0.002973428 0.00246673 -0.003169719 0.0017656465 0.00039526843 -0.0022544228 0.0020106223 0.003380387 -0.0025749865 -0.0011050141 0.00079346355 -0.002716917 0.0029328119 -0.003851908 0.0037140262 -0.0032287429 0.0026820323 -0.0029412159 -0.0011373078 -0.003080968 0.003519421 0.0033891266 0.00049624237 -0.0008032271 -0.0026226728 0.002685783 0.0022130094 5.217766e-05 -0.0028633242 -0.003797416 -0.00035856958 -0.0024960716 -0.0028403618 -0.0011929137 -0.0025156336 0.0035110747 0.0029568165 0.00019317707 -0.002961143 0.00011581962 -0.0018023365 -0.0033287492 0.003745983 -0.0034560936 0.0003453093 0.0018908704 0.0035757592 -0.0023372648 -0.001684704 -0.00019814004
2 -0.002513883 0.0015397544 -0.0030829087 0.0025575736 0.0016187095 -0.0029068792 0.0018515104 -0.0026037123 0.00047685488 0.0034970627 -0.000368243 -0.0029237124 -0.0015816165 0.0019259239 0.0027390805 -0.0034841066 -0.00022827479 -0.0025683984 0.0026245909 0.002881987 -0.0032964796 0.0021278718 0.00083401805 -0.00087630935 0.00247068 0.0028596981 -0.0013608317 -0.002935904 0.0021891512 -0.0028294493 0.003594647 0.003058262 0.0013262394 -0.0031844291 -0.0016386445 -0.00035289055 -0.0027100681 -0.00070087897 -0.0019323713 0.0031572552 0.00015851585 0.00028701662 0.00081158365 0.0009759325 0.003432359 -0.003103716 -0.002756894 -0.0038559276 0.003226565 -0.0012132926 -0.0012444621 0.0011769538 -0.003551499 -0.0019950385 -0.002404832 0.002984434 -0.0038070243 -0.0020547407 0.0033697395 -0.00042266058 0.00047299758 -0.0018555553 0.003478093 -0.0024436465 0.0029602384 0.0016919918 0.003282106 0.0032783118 0.0006328794 -0.0038277695 0.0018540126 -0.002163654 0.0015460775 -0.00077753834 0.0012325817 -0.0015919101 -0.0025271932 0.00042352392 -0.002324231 -0.00031807987 -0.0019026602 0.001457219 -0.0018148156 0.0035995746 0.0010477445 0.0015415621 0.001224185 -0.001358974 0.000737472 -0.0037968396 -8.428792e-05 -0.0024205297 -0.0011534615 -0.0037645148 0.00230268 -0.0018827107 -0.0022162255 0.003396351 -0.002466772 0.001768425 0.00035031408 0.0027400227 -0.001784142 0.00016080211 -0.002859477 0.0009388576 0.003711678 0.0023115573 0.0030909637 0.0027381433 0.0005702215 0.00027517547 -0.0013710216 0.0015999525 -0.00049229426 0.0036693558 -0.003315202 -0.0015073018 0.0026151484 -8.781274e-05 -0.0023529052 0.0007335001 0.0007785371 -0.00036690687 -0.0026756055 0.0002741547 0.003698959 -0.0032962372
