8 128
1 0.0025869154 0.00080781686 0.0027493124 -0.0037127356 0.0026482155 -0.0033726173 0.0039009242 0.0026263841 6.671926e-05 -0.0014745736 -0.0013899701 0.0022829233 0.0030793084 0.001194216 0.0021987201 0.0016833458 0.0006374701 -0.0006504523 0.0023721785 -0.0029981714 0.0027753746 0.00041068872 0.00085750065 0.0023685794 -0.0011784757 0.0037765978 -0.00035107028 0.0034745461 0.00074815954 -0.0014927427 -0.00097276934 -0.00107958 -0.0032843328 0.00053568074 -0.00026215272 0.000513572 -0.0016387771 0.000111905865 -0.0019715664 0.00042781414 0.002337599 0.0020028343 0.00030376183 -0.0015793083 0.0025196301 -0.0037509955 0.0027721305 0.003851409 0.0038389352 0.0037738893 -0.00389944 -0.0011864961 0.003542574 -0.00072038505 0.0008657301 -0.00022926868 0.0037457012 -0.002081012 -0.0023609006 -0.002386375 0.0032205484 0.002503797 0.0005620148 -0.0018234946 -0.0032522033 -0.0019075084 -0.0012495685 -0.0006665264 -0.0021148256 -0.0018278663 0.0024640213 -0.0033986247 0.0004449376 0.0025941161 -0.00029852468 -0.003064453 -0.0010501373 -0.0033551578 0.0024053406 0.0006417328 -0.0015837863 -0.003505003 0.0029044282 -0.0031851495 1.0347813e-06 0.001829536 0.002958455 0.0030597425 -0.0009970723 -0.0021760114 -0.0030944592 -0.0009347271 0.0012660907 0.0036423355 -0.0017989717 0.0025849524 -0.002782095 -0.001897084 -0.0033039255 0.0010908892 -0.0020341855 -0.0028671073 -0.0015663956 -0.002899273 -0.0035270525 -0.003878559 0.0028747958 0.0013608261 -0.0027632436 -0.0016832923 0.00022458078 0.0021312807 0.0033335546 -0.00032431752 -0.003066938 0.0028605903 -0.0014546349 -0.0015098832 -0.0019663984 0.002418581 -2.7127675e-05 0.00094013754 0.0028869244 -0.0034872713 -0.0026804914 0.0023581833 0.00014518308 0.0014778682
2 0.0033673167 0.00038282905 -0.0035371804 0.0031650541 -0.0013212035 0.0010038778 0.0017707254 0.0014160846 0.0011552419 -0.0021033902 0.0021976952 0.00067848526 -8.851347e-06 -0.0028195095 0.0035622793 0.0011295006 0.0019335069 -0.0032551787 0.0012100089 -0.0033847545 -0.0039031499 -0.0013207787 -0.00032246043 -0.00071957335 7.881666e-06 0.0023923148 -0.0036199181 -0.003696459 -0.002591977 0.001239934 0.00044266265 0.0022696587 -0.00049477356 0.0025357634 0.0008258089 -0.0019483987 -0.0006034564 -0.00070429 0.0022301225 -0.0021478885 -0.00025977648 -0.0039035 1.7097342e-05 -0.0007818068 -0.0033292791 -0.0030556 0.0017089428 0.0020592208 -0.0023395184 -0.0025438874 0.0020311954 -0.00061699824 -0.0012339174 0.0031755436 0.00018301804 0.0011530359 -0.0025235333 0.0022920216 0.0033002202 0.0004286437 -0.0010414165 -0.0019969372 0.0038333677 -0.0002264421 0.00031392748 0.0016098239 -0.0019075361 -0.0024046127 -0.0011267734 -0.0015350047 0.0027739452 -6.899245e-06 0.0018259776 -0.000104105704 -0.0013626203 -0.0034448172 0.0036370642 0.002815873 0.00044970718 0.00068736356 0.0008271213 -0.0038467767 -0.002762135 -0.0034899488 -0.0002745908 -0.002021821 -0.0038660169 0.0038798705 -0.003721832 -0.00028045702 -0.0038586925 -0.0001008154 -0.0022547706 0.003659874 -0.00024232868 -5.9279384e-05 -0.0029179065 0.0012747997 -0.0030342184 0.0015866876 -0.00048419496 0.0013489771 0.00090224895 -0.0009333782 -0.00053418137 -0.0025755502 0.0021929927 -0.0024587282 0.0038758402 0.002126017 -0.0031196277 0.00033304928 0.0010708098 0.0037178542 -0.0013873902 0.00049456547 -0.0009194323 -0.0026038939 0.00086853094 -0.0009637271 -0.0034504444 0.0004978285 0.0026546284 0.00089553074 -0.0029473675 -0.0033809696 -0.0031854464 0.0018971432
3 0.0031568971 -0.0023923924 0.0031730772 -0.0036656507 -0.00024273766 0.0023045053 -0.0005952879 0.0029427125 -0.0013116286 -0.0014143195 0.0015442835 0.001808426 0.0003266933 -0.0013041977 0.0030527378 -0.002406231 0.0002811375 -0.00075791887 -0.0013868083 -0.0016784148 -0.00019902117 0.0018127508 -0.0035482906 0.0020563307 0.00069155946 0.0033584742 -0.0015894165 0.0002126684 0.003171519 0.000344415 0.0025072645 0.00039554268 0.0014735017 0.0037108168 0.00039833062 -0.00012997258 -0.0003978411 -0.0027930015 0.0011916094 -0.0006941706 -0.0006634335 0.0005234806 -0.00071424234 0.0017440415 -0.0013277614 -0.000981883 0.0014729536 0.00054595317 -0.0038679694 -0.0024213844 0.002058915 -0.002833013 0.0029819147 -5.119927e-05 0.00059580803 -0.00025757667 0.0018999109 0.0021521302 -0.0023409242 0.0019470678 6.983047e-05 -0.0021253282 0.0036317124 0.00066524604 -0.0034947474 -0.002442424 -0.0035244157 0.0031715133 -0.0011960958 0.0027234687 -0.0036139118 -0.0021027296 -0.0009881 0.003462888 -0.0017330797 -0.0034071365 0.0012894636 0.00078594394 -0.0007075892 -0.0024558988 -0.0026265788 0.0026621497 0.003774327 0.0012644604 0.00014717715 3.0349684e-05 -0.0014235562 -0.0019284914 0.0037590093 -0.00075609994 -0.0009961565 -0.0027080232 -0.0038270778 0.00059586484 0.0022664466 -0.00096435554 -0.0014285039 0.0037750911 -0.0016009528 0.0025498883 -0.0016506745 0.0028009422 0.002260276 -0.0015518264 -5.2964315e-05 0.0035999808 -0.0035806696 -0.002490165 0.0004813058 -0.0028258178 0.003357479 0.0013155828 -0.0016304137 -0.0011957292 -0.0031164184 -0.0012908381 -0.001687526 -0.001564189 -0.00040323942 0.002329587 -0.0035364563 0.00033824515 -0.001952839 -0.0018828134 0.0036548595 0.0035351766 -0.0003382961 0.0021434177
9 0.0007056972 0.00088272314 -0.0035587044 0.0035468917 -0.0024667464 -0.002089685 0.002860479 -0.0006073446 0.0031812529 0.0016476428 -0.002561425 0.00078723783 -0.002759453 0.002499178 -0.0030277164 -0.00362257 -0.0005048817 -0.0006277276 0.00064428657 5.4357835e-05 0.0026631285 -0.0029655113 -0.0036330097 -2.3208875e-07 0.0005456527 -0.0020315156 -0.0019316897 -0.001176848 -0.0029222092 0.000322785 0.00056781963 0.00014456782 -0.0018693607 0.0038705387 -0.00010123761 -0.0029187058 -0.0028803265 -0.00061006873 -0.0032234176 0.0014198696 0.0015759098 0.0025976556 -0.0027698705 0.0006714679 -0.001485303 -0.0014941778 0.00096340384 -0.0031237516 -0.00045126388 -0.002507001 0.0011350209 -0.0009768315 -0.0002735547 -0.0005415403 0.0029992994 -0.0014379706 0.0019511388 -0.0038405005 -0.003580303 0.0004925877 -0.0028754156 0.00067091937 -0.00030683255 -0.00025612197 0.0017608287 0.0027475306 -0.0019346167 -0.0021897948 -0.003123486 0.0031489634 0.0020051457 -0.00147 -0.0030515653 -0.0038881975 -0.0010435097 0.00043708595 -0.0031321566 -0.0035739755 -0.0019395348 -0.00088614854 -0.00029348975 0.00016484987 -0.00014956557 -0.0010075241 0.00069576676 -0.0023040774 -5.6268196e-05 -0.0016417234 0.0025452424 0.0019315704 0.0005829674 0.00040705487 -0.00079353095 -0.0030469822 0.001188455 0.0029029523 0.00348861 0.0018465512 0.0031820168 -0.0004338931 -0.0024203237 -0.0010253859 -0.0007548563 -0.003175547 -0.003761011 0.0012594523 -0.0031413098 -0.0019385831 0.0030072362 -0.0035714402 0.0019285093 -0.0012674027 0.0012635849 -9.373456e-05 -0.0025685662 -0.000927299 0.0007540523 0.0006922312 0.0037717863 0.0032197053 0.000553322 -0.00015095131 0.0006311285 -0.00082704553 -0.00035144453 -0.00055764895 0.0013615768 0.00044933107
7 0.0025990955 -0.0035585705 0.003759959 -0.00082740467 0.0009488103 -0.0033822278 0.0032327008 0.002314811 0.003584906 -0.0014471966 -0.0021315042 -0.003358073 0.0013118904 -0.00013049055 -0.001965042 -0.0027614655 0.000542971 -0.00046973757 -0.00024852005 -0.0003649132 0.0027494896 0.00065310206 0.00089782896 -0.002975627 -0.0022859161 -0.0010515127 -0.003372241 0.00027032068 0.0031961964 -0.0033901392 -0.0010588057 0.00045983295 0.003693903 0.003117258 0.00097506953 -0.0015743027 -0.00085304887 -0.00093498104 -0.0014028377 -0.0019083037 -0.0035214701 0.0026210968 0.0034776665 -0.0012105682 0.00052798097 0.00034760515 -0.00084868964 -0.003128177 -0.0019180841 -0.0017332796 0.0006326832 -0.0016821264 -0.0013550172 -0.0026041078 -7.876474e-06 0.002654277 0.002278436 -0.0035477881 0.0035189078 -0.0021627105 0.0013941423 0.0017679032 0.0038242438 -0.0012691577 -0.0032688775 -0.00026041578 -0.0018647268 0.0024037703 0.0034326348 0.0029000493 -0.001065396 0.0010077915 0.00083839294 -0.0034279372 -0.002368637 -0.00060707936 0.003425323 0.001054891 -2.9812396e-05 0.0014795018 0.002204982 0.002837868 -0.00306486 -0.0020508235 0.00036452324 0.00040030433 0.0035742626 -0.0032597855 0.0013390608 0.00055651035 0.003488335 -0.00035544162 -0.0020620883 0.0019067362 0.0020544135 -0.0005404304 -0.0029303902 0.0034054467 -0.0036901361 0.0003254079 0.0010850627 0.0015413264 0.00016913426 0.0025566951 -0.002476064 0.00089029566 9.113475e-05 -0.0034638508 -0.0003272706 -0.0006142954 0.0013648804 -0.0019076298 0.0030565925 -0.0021337112 0.0013462752 -0.002547246 0.0013185287 -0.0015657614 -4.7893896e-05 0.0016712503 -0.0030164202 -0.0011218082 -0.0023912657 0.0019085155 0.00283714 -0.0037991803 -0.0037295183 0.0030128069
8 0.0012099195 -0.0005343899 -0.00072676514 -0.0020775278 -0.003278744 -0.0011679619 -0.0038243677 0.0009805805 0.0006714925 0.0018473745 -0.0020048758 -0.0029109225 0.0011753117 0.0013561428 0.0019868633 0.0007136807 0.001087913 -0.0018588096 0.0024650695 -0.002185587 0.002562594 -0.0012682775 0.0015578563 0.0008778874 -0.00041568765 -0.0024027652 -0.00086662435 0.0038224242 -0.0023967563 0.0036574502 0.0013607037 0.0014105444 -0.00092019123 -0.00060065 -0.0035419643 0.0033000538 -0.0033102084 0.0013399756 0.0016445529 -0.0017839286 0.00022251779 -0.00044388566 0.0031283798 0.0013172656 0.0016057662 -0.0036786818 -0.0031135378 0.0015471542 0.0006244378 -0.002218843 -0.0021677644 0.0026762797 0.0009336054 0.0006006501 -0.0010697152 0.0008120471 0.0021146068 -0.001937317 -0.0014294824 0.0013211111 0.0007083059 -0.0013268496 -0.001967105 0.0018665597 0.0035277575 -0.0020566096 -0.000651743 -0.0016894235 -0.0006613446 -0.0021149407 -0.0035927768 -0.00010799523 -0.0029151181 0.000944894 -0.0036715793 -0.0033615367 -0.0016221233 0.00047521002 -0.00026557763 0.00046843302 0.0006138805 0.00012739278 -0.000116100084 -0.00029100254 0.001165914 0.0018848947 -0.0024913887 -0.0018876836 -0.0012866047 -0.0017349657 -0.0027489234 0.00045616648 0.003454695 7.3787465e-05 0.00013339231 0.0019279729 -0.002393083 -0.0009665288 -0.0012737989 -0.0026858037 0.00040704146 0.00089060934 -0.0030751508 0.0009023501 0.002061849 -0.002118917 0.00017918492 0.0023011225 -0.00033127083 0.0019349962 -0.0017206416 -0.00033710612 -0.0033591753 -0.0036395555 -0.002865759 -0.0029569988 0.0012094531 -0.0011629428 -0.0034700704 0.0007756401 -0.00055379 0.0029233138 -0.0019651786 -0.00097192643 -0.00046306447 0.0008243834 -0.0037763682 0.0036888476
5 0.0003593902 -0.0035982437 0.0012423717 0.002264458 0.0016400766 -0.0029808625 0.00082198007 -7.911336e-05 -0.0010690049 -0.0025844076 -0.0019411058 -0.0017928065 0.0010334278 -0.0036319755 -0.0011017089 0.002937307 -0.00021300021 0.00023139738 -0.0002938014 -0.00033037594 -0.002083865 0.0015597405 -0.0035052907 -0.00038512537 0.0035240264 0.0027831695 0.000809491 0.0031930802 -0.00014471484 -0.0014292032 0.0037350198 -0.002611271 0.0023555586 -0.0024737744 -0.0020726398 -0.00095787056 -0.0004406519 0.0010892604 -0.0014010303 -0.0034144945 0.0030004345 -0.00023516105 -0.0007627447 0.0032512008 0.00058387464 0.0028613533 0.003663648 0.001940557 -0.0031988872 -0.00072549423 0.0029188148 -0.0019708625 -0.0020429855 -0.0019202847 -0.0016450072 0.0008551326 -0.0003469865 -0.0017678307 0.003183119 0.0032499377 -0.0036780962 -0.0037671076 0.0036351972 -0.0028944062 -0.00095663185 -0.0013833973 -0.0013173317 0.0024383313 0.002391885 -0.0033061448 -0.0010493041 0.0011823984 -0.0035297652 0.002906133 -0.0030832267 0.0011881739 -0.0025918467 0.0018486399 -0.0023700942 0.0006874521 -0.002533671 0.0033629364 0.0004041663 -0.0033660494 -0.00091696 0.0014413572 0.0037379453 -0.0025587226 0.002576756 0.0017017974 0.0023667954 -0.0013313182 0.0012394033 0.0018661491 -0.0029424003 -0.0037233238 0.0032830504 -0.002595464 0.0036899098 7.947841e-05 -0.0025542013 0.0014746321 -0.0026859494 -0.0028982938 0.001796608 0.0018659738 0.0012847674 0.0007953741 0.00044433872 -0.0011003354 0.0007156037 -0.0016561131 0.0015361953 -0.0033405442 -0.0009961684 -0.0015561106 6.190369e-05 -0.0023033302 0.0006764783 0.0035417848 -0.0027801148 0.003298217 -0.0018744972 -0.0018795697 -0.0037501995 0.00078427244 0.0022728026 0.0019067648
6 -0.0037518698 -0.00025276793 -7.9772915e-05 -0.002056832 0.000106903695 0.0037210274 -0.0031840482 0.00030227247 0.0035883875 0.003216527 0.003660961 -0.0027460116 -0.0021469072 0.0009967941 0.0014283486 3.610393e-05 -0.0012360859 -0.00029929544 0.0037787138 -0.002741096 -0.00072605204 -0.0024968632 0.00096394203 -0.0007568821 -0.0022569222 -0.0017954999 0.0010418395 0.0031224259 -0.00014623237 0.0010480185 0.0035533009 0.0036645124 0.00071903085 -0.002042311 0.0028673483 -0.003290392 -0.0003389601 -0.0003989285 -0.0036424538 0.00016587133 -0.00043598158 -0.0022948915 0.002378584 -0.0004752295 0.00063215435 -0.0006372891 0.0014240902 0.0008994617 -0.003712573 0.00055376603 0.0026678958 -0.0019891625 0.002738199 0.00017890107 -0.0007553602 -0.00032514334 -0.0028290185 -0.0024635475 -0.00068970525 0.002274898 0.00050129683 0.0037008645 -0.00030793872 0.0018677316 0.002205296 -0.00053812045 0.0020781152 0.0010814109 -0.0027935335 0.0020942267 -0.0028898595 -0.0014019619 -0.0036997297 0.0026938375 0.0008693797 -0.0016902636 -0.00025726372 0.0027261092 0.0024637412 -0.0019002855 -0.00040461757 -0.0030255213 0.00081265514 0.0020614702 0.0020102363 0.0034916352 0.0017338186 -0.00017491801 0.00040513254 -0.0007027061 0.0014794789 0.00020244051 -0.0038114027 0.0034744143 -0.0037787436 0.0002639555 -0.00335776 0.0013287893 0.002515783 0.0021837193 0.0010606758 0.0019761808 0.0019058819 0.0005378313 -0.0035336043 -0.0005284025 0.0015254099 0.003343446 0.0035387685 0.0038272901 -0.0012850598 0.0020792962 0.0029552216 0.0026084762 0.001966412 -0.0013061175 0.0021940228 0.0014628023 0.00018667421 -0.0017864649 0.0008185072 -0.003696073 -0.0018636057 0.0028793383 -0.00010312521 -0.002795955 -0.0020370402 0.0030781478
